digraph Tree {
node [shape=box, style="filled, rounded", color="black", fontname="helvetica"] ;
edge [fontname="helvetica"] ;
0 [label="age <= 25.5\ngini = 0.792\nsamples = 12\nvalue = [3, 2, 2, 2, 3]\nclass = Acoustic", fillcolor="#ffffff"] ;
1 [label="gender <= 0.5\ngini = 0.5\nsamples = 4\nvalue = [0, 0, 2, 2, 0]\nclass = Dance", fillcolor="#ffffff"] ;
0 -> 1 [labeldistance=2.5, labelangle=45, headlabel="True"] ;
2 [label="gini = 0.0\nsamples = 2\nvalue = [0, 0, 2, 0, 0]\nclass = Dance", fillcolor="#39e5c5"] ;
1 -> 2 ;
3 [label="gini = 0.0\nsamples = 2\nvalue = [0, 0, 0, 2, 0]\nclass = HipHop", fillcolor="#3c39e5"] ;
1 -> 3 ;
4 [label="gender <= 0.5\ngini = 0.656\nsamples = 8\nvalue = [3, 2, 0, 0, 3]\nclass = Acoustic", fillcolor="#ffffff"] ;
0 -> 4 [labeldistance=2.5, labelangle=-45, headlabel="False"] ;
5 [label="age <= 30.5\ngini = 0.375\nsamples = 4\nvalue = [3, 1, 0, 0, 0]\nclass = Acoustic", fillcolor="#eeab7b"] ;
4 -> 5 ;
6 [label="gini = 0.0\nsamples = 3\nvalue = [3, 0, 0, 0, 0]\nclass = Acoustic", fillcolor="#e58139"] ;
5 -> 6 ;
7 [label="gini = 0.0\nsamples = 1\nvalue = [0, 1, 0, 0, 0]\nclass = Classical", fillcolor="#7be539"] ;
5 -> 7 ;
8 [label="age <= 33.5\ngini = 0.375\nsamples = 4\nvalue = [0, 1, 0, 0, 3]\nclass = Jazz", fillcolor="#ee7bd5"] ;
4 -> 8 ;
9 [label="gini = 0.0\nsamples = 3\nvalue = [0, 0, 0, 0, 3]\nclass = Jazz", fillcolor="#e539c0"] ;
8 -> 9 ;
10 [label="gini = 0.0\nsamples = 1\nvalue = [0, 1, 0, 0, 0]\nclass = Classical", fillcolor="#7be539"] ;
8 -> 10 ;
}